tree
version=v4
num_class=1
num_tree_per_iteration=1
label_index=0
max_feature_idx=12
objective=regression
feature_names=source destination duration hour_start_time hour_end_time minutes_start_time minutes_end_time dayofweek month year dayofyear dayofmonth weekofyear
feature_infos=-1:0:4:1:6:3:5:2 -1:4:0:3:1:5:6:2 [45:165] [4:21] [6:22] [0:55] [0:59] [0:6] none none [245:247] [1:3] [35:36]
tree_sizes=2574 2613 2615 2605 2606 2622 2623 2621 2608 2626 2605 2615 2631 2623 2616 2613 2613 2610 2623 2596

Tree=0
num_leaves=31
num_cat=2
split_feature=0 1 2 7 7 7 6 2 2 2 6 2 2 2 4 4 7 4 4 6 6 4 4 4 7 4 4 5 5 7
split_gain=1.25321e+06 777572 628324 227995 180988 155100 136182 85651.8 70980.5 69353.4 169542 101766 61908.8 59339.6 59181 54049 54658.3 40899.8 44993.4 27348.7 22644.8 20849.7 34840.6 20087.8 20048.5 16443.9 10946.1 11584.7 10472.3 10037.2
threshold=0 1 157.50000000000003 3.5000000000000004 3.5000000000000004 3.5000000000000004 27.500000000000004 122.50000000000001 112.50000000000001 72.500000000000014 1.0000000180025095e-35 112.50000000000001 122.50000000000001 67.500000000000014 16.500000000000004 10.500000000000002 1.0000000180025095e-35 17.500000000000004 12.500000000000002 7.5000000000000009 27.500000000000004 9.5000000000000018 19.500000000000004 15.500000000000002 1.0000000180025095e-35 9.5000000000000018 13.500000000000002 17.500000000000004 17.500000000000004 1.0000000180025095e-35
decision_type=1 1 2 2 2 2 2 2 2 2 2 2 2 2 2 2 2 2 2 2 2 2 2 2 2 2 2 2 2 2
left_child=1 4 5 9 15 7 -6 13 -5 10 -3 29 19 -2 24 -1 -17 18 -9 -7 -12 -15 26 25 -13 -21 27 -23 -28 -11
right_child=2 3 -4 8 6 12 -8 17 -10 11 20 14 -14 21 -16 16 -18 -19 -20 23 -22 22 -24 -25 -26 -27 28 -29 -30 -31
leaf_value=179.96121154453746 177.38717061711392 176.16206556703295 185.11980376700492 179.69599413983701 183.05849430734136 175.79276834123903 188.23488316267503 176.61151139831313 182.48885143067088 176.69355512061327 182.41349421535151 180.24599417254794 179.79999418972153 174.39826688289315 176.31027985526626 184.10313706593786 181.10895714314773 175.71534899889807 179.44784602320632 177.11266081903594 180.06266082641557 177.258494144422 174.30872144857716 176.77255666407291 178.37676339995008 178.5753419718047 174.79599414412397 175.82620248123226 175.81838220785988 175.62828580301721
leaf_weight=23 34 28 21 65 24 31 27 29 35 41 20 32 25 66 21 35 27 31 27 33 21 20 55 64 26 46 40 48 67 48
leaf_count=23 34 28 21 65 24 31 27 29 35 41 20 32 25 66 21 35 27 31 27 33 21 20 55 64 26 46 40 48 67 48
internal_value=178.154 180.005 176.639 178.656 183.082 176.325 185.799 175.777 180.673 177.827 179.161 177.278 177.473 175.409 178.585 182.031 182.799 177.172 177.979 177.139 181.209 175.182 175.406 177.431 179.408 177.964 175.751 176.247 175.436 176.119
internal_weight=0 473 637 337 136 616 51 417 100 237 69 168 199 330 79 85 62 87 56 174 41 296 230 143 58 79 175 68 107 89
internal_count=1110 473 637 337 136 616 51 417 100 237 69 168 199 330 79 85 62 87 56 174 41 296 230 143 58 79 175 68 107 89
cat_boundaries=0 1 2
cat_threshold=97 48
is_linear=0
shrinkage=1


Tree=1
num_leaves=31
num_cat=2
split_feature=0 1 2 7 7 7 2 3 3 2 2 2 2 7 3 7 3 4 3 4 2 2 3 4 5 4 5 4 3 2
split_gain=1.13102e+06 701759 567062 205766 163342 139978 77300.8 65150 64291.6 64059.9 61818.6 55872.7 53554 51297.2 48779.3 49329.1 44419 35691.4 25865.4 22732 21516.6 36399.6 20368.5 31285.6 11879.2 10245 10455.2 10035.2 15503.9 9637.27
threshold=0 1 157.50000000000003 3.5000000000000004 3.5000000000000004 3.5000000000000004 122.50000000000001 11.500000000000002 14.500000000000002 112.50000000000001 72.500000000000014 122.50000000000001 67.500000000000014 1.0000000180025095e-35 8.5000000000000018 1.0000000180025095e-35 16.500000000000004 12.500000000000002 16.500000000000004 20.500000000000004 77.500000000000014 112.50000000000001 18.500000000000004 9.5000000000000018 7.5000000000000009 13.500000000000002 17.500000000000004 9.5000000000000018 12.500000000000002 92.500000000000014
decision_type=1 1 2 2 2 2 2 2 2 2 2 2 2 2 2 2 2 2 2 2 2 2 2 2 2 2 2 2 2 2
left_child=1 4 5 8 14 6 12 -6 13 18 -10 19 -2 24 -1 -16 17 -8 -5 27 -15 -22 23 -14 -3 26 -25 29 -29 -7
right_child=2 3 -4 9 7 11 16 -9 10 -11 -12 -13 22 20 15 -17 -18 -19 -20 -21 21 -23 -24 25 -26 -27 -28 28 -30 -31
leaf_value=1.7171567854673968 -0.72818202130934773 0.26721349701285363 6.6178194170906437 0.7271050864741917 5.0381065654754638 -0.58403357863426208 -1.4650583207607271 8.6984059979838708 0.74976831245422371 4.1184146935599193 -2.1758935998036311 1.5640002975463867 -3.5676406925374815 0.70795336585977808 5.6519860294887003 2.8075151306611521 -2.6626904597649208 0.95676785856485369 2.813026465540347 -2.3273614544134875 -2.4091921435462105 0.21193106724665714 -3.7434360752105711 -0.85042472600936891 1.7049925499540919 -2.5889352860195296 -2.2111017862955733 0.37805636723836267 -0.89880203902721412 -2.1005438403649763
leaf_weight=23 34 20 21 42 20 20 29 31 25 35 65 25 66 23 35 27 26 32 23 26 27 26 50 20 51 112 48 36 70 22
leaf_count=23 34 20 21 42 20 20 29 31 25 35 65 25 66 23 35 27 26 32 23 26 27 26 50 20 51 112 48 36 70 22
internal_value=0 1.75832 -1.43931 0.47763 4.68171 -1.73735 -2.25803 7.26299 -0.310739 2.39383 -1.36321 -0.646282 -2.60756 0.333632 3.68373 4.41326 -0.932185 -0.194592 1.4652 -0.963851 -0.569145 -1.12336 -2.82344 -2.63645 1.29998 -2.29501 -1.8109 -0.724316 -0.465152 -1.3784
internal_weight=0 473 637 337 136 616 417 51 237 100 90 199 330 147 85 62 87 61 65 174 76 53 296 246 71 180 68 148 106 42
internal_count=1110 473 637 337 136 616 417 51 237 100 90 199 330 147 85 62 87 61 65 174 76 53 296 246 71 180 68 148 106 42
cat_boundaries=0 1 2
cat_threshold=97 48
is_linear=0
shrinkage=0.05


Tree=2
num_leaves=31
num_cat=2
split_feature=0 1 2 10 10 10 6 2 4 2 2 2 2 3 10 10 3 4 6 3 3 4 2 2 3 2 4 4 5 5
split_gain=1.02075e+06 633338 511774 185704 147416 126330 121763 69763.9 58065.7 57814 51107.9 50425.1 48332.5 44023.3 44519.5 43627.3 40088.2 32211.5 24101.7 23343.5 18382.6 28235.3 18133.5 31230.7 18024.4 13061.5 12686.5 9246.07 9435.82 8550.12
threshold=0 1 157.50000000000003 245.50000000000003 245.50000000000003 245.50000000000003 27.500000000000004 122.50000000000001 15.500000000000002 112.50000000000001 72.500000000000014 122.50000000000001 67.500000000000014 8.5000000000000018 246.50000000000003 246.50000000000003 16.500000000000004 12.500000000000002 7.5000000000000009 16.500000000000004 18.500000000000004 9.5000000000000018 77.500000000000014 112.50000000000001 14.500000000000002 112.50000000000001 9.5000000000000018 13.500000000000002 17.500000000000004 17.500000000000004
decision_type=1 1 2 2 2 2 2 2 2 2 2 2 2 2 2 2 2 2 2 2 2 2 2 2 2 2 2 2 2 2
left_child=1 4 5 9 6 11 -1 12 15 19 -10 18 -7 -6 -15 25 17 -9 -2 -3 21 -14 -17 -24 26 -5 -20 28 -23 -29
right_child=2 3 -4 8 13 7 -8 16 10 -11 -12 -13 20 14 -16 22 -18 -19 24 -21 -22 27 23 -25 -26 -27 -28 29 -30 -31
leaf_value=4.3085368822018308 -2.1795398073811687 0.69074986917631964 6.2869283131190707 0.6676903069411454 1.631298989834993 -0.69177297704360063 9.203229430869774 -1.3918054389542549 0.71227996635437019 3.9124937428746906 -1.9117198262777593 1.4858003005981446 -3.3892586390177408 5.3693866947719036 2.6671393079614201 0.67255575553230618 -2.5295559809758115 0.90892938002944001 -0.92529850486299081 2.6723750451336739 -3.5562642765045172 -0.80790345191955559 -2.2244162045992337 0.27681533098220829 -1.3019022324681284 2.0766997057816079 0.33780152583122258 -3.0234785454613822 -2.1005466377983493 -2.1210944833074299
leaf_weight=24 31 42 21 38 23 34 27 29 25 35 72 25 66 35 27 23 26 32 33 23 50 20 26 24 60 29 50 42 48 70
leaf_count=24 31 42 21 38 23 34 27 29 25 35 72 25 66 35 27 23 26 32 33 23 50 20 26 24 60 29 50 42 48 70
internal_value=0 1.6704 -1.36734 0.453748 4.44763 -1.65048 6.89984 -2.14512 -0.295202 2.27413 -1.23543 -0.613968 -2.47719 3.49954 4.1926 0.356243 -0.885576 -0.184863 -0.915659 1.39194 -2.68227 -2.50463 -0.489349 -1.02383 -0.641671 1.27756 -0.164395 -2.18026 -1.72036 -2.45949
internal_weight=0 473 637 337 136 616 51 417 237 100 97 199 330 85 62 140 87 61 174 65 296 246 73 50 143 67 83 180 68 112
internal_count=1110 473 637 337 136 616 51 417 237 100 97 199 330 85 62 140 87 61 174 65 296 246 73 50 143 67 83 180 68 112
cat_boundaries=0 1 2
cat_threshold=97 48
is_linear=0
shrinkage=0.05


Tree=3
num_leaves=31
num_cat=2
split_feature=0 1 2 7 7 7 6 2 3 2 2 2 2 7 3 7 3 4 6 3 2 2 3 4 2 4 4 4 4 3
split_gain=921226 571587 461876 167597 133043 114013 109891 62962 52986.4 52177.2 50648.4 45508.6 43620 42110.2 39731 40178.9 36179.6 29070.9 21823.2 21067.5 17518.1 29859.6 16590.3 25482.3 9934.78 8344.58 7405.69 6333.7 5740.09 5075.89
threshold=0 1 157.50000000000003 3.5000000000000004 3.5000000000000004 3.5000000000000004 27.500000000000004 122.50000000000001 14.500000000000002 112.50000000000001 72.500000000000014 122.50000000000001 67.500000000000014 1.0000000180025095e-35 8.5000000000000018 1.0000000180025095e-35 16.500000000000004 12.500000000000002 12.500000000000002 16.500000000000004 77.500000000000014 112.50000000000001 18.500000000000004 9.5000000000000018 112.50000000000001 13.500000000000002 15.500000000000002 9.5000000000000018 16.500000000000004 14.500000000000002
decision_type=1 1 2 2 2 2 2 2 2 2 2 2 2 2 2 2 2 2 2 2 2 2 2 2 2 2 2 2 2 2
left_child=1 4 5 8 14 7 -6 12 13 19 -10 18 -2 24 -1 -16 17 -9 29 -5 -15 -22 23 -14 -3 -25 27 -20 -27 -7
right_child=2 3 -4 9 6 11 -8 16 10 -11 -12 -13 22 20 15 -17 -18 -19 26 -21 21 -23 -24 25 -26 28 -28 -29 -30 -31
leaf_value=1.5497340409652047 -0.65718433997210335 0.64434045858872246 5.972581953945614 0.65621234930696948 4.0931101098656653 -1.2867284262621845 8.7430680310284643 -1.322215118747333 0.67666595268249519 3.7168691366059443 -1.9715128807838145 1.4115102901458743 -3.2197956536755421 0.63892792774283369 5.1009173284258162 2.533782376183404 -2.4030781709230862 0.86348296105861666 -0.71689040853131214 2.5387562661067302 -2.1780906624264187 0.19591120939988357 -3.3784509730339054 -1.634339673729504 1.833037137502106 -2.6944624526160106 -0.96153536399580397 0.23528502464294432 -1.9785656486238754 -2.2975290464318316
leaf_weight=23 34 39 21 42 24 27 27 29 25 35 65 25 66 23 35 27 26 32 31 23 27 26 50 68 32 56 53 40 56 23
leaf_count=23 34 39 21 42 24 27 27 29 25 35 65 25 66 23 35 27 26 32 31 23 27 26 50 68 32 56 53 40 56 23
internal_value=0 1.58688 -1.29898 0.431061 4.22524 -1.56796 6.55485 -2.03787 -0.280442 2.16043 -1.23591 -0.58327 -2.35333 0.304538 3.32457 3.98297 -0.841297 -0.175619 -0.869876 1.32234 -0.513413 -1.01349 -2.54815 -2.3794 1.18009 -2.07125 -0.514303 -0.180454 -2.33651 -1.7517
internal_weight=0 473 637 337 136 616 51 417 237 100 90 199 330 147 85 62 87 61 174 65 76 53 296 246 71 180 124 71 112 50
internal_count=1110 473 637 337 136 616 51 417 237 100 90 199 330 147 85 62 87 61 174 65 76 53 296 246 71 180 124 71 112 50
cat_boundaries=0 1 2
cat_threshold=97 48
is_linear=0
shrinkage=0.05


Tree=4
num_leaves=31
num_cat=2
split_feature=0 1 2 7 7 7 6 2 2 6 2 2 2 2 3 3 7 3 4 6 6 3 5 3 3 4 5 5 3 6
split_gain=831406 515857 416843 151257 120071 102897 99176.8 56823.2 48646.3 151986 73116.2 47089.9 41071.5 39367.1 38312.4 35857.2 36261.4 32652.1 26236.5 20530.5 20255.3 19013.5 15055.2 15004.7 14972.7 22997.8 11014 7652.74 7567.06 8249.63
threshold=0 1 157.50000000000003 3.5000000000000004 3.5000000000000004 3.5000000000000004 27.500000000000004 122.50000000000001 72.500000000000014 1.0000000180025095e-35 112.50000000000001 112.50000000000001 122.50000000000001 67.500000000000014 14.500000000000002 8.5000000000000018 1.0000000180025095e-35 16.500000000000004 12.500000000000002 27.500000000000004 7.5000000000000009 16.500000000000004 42.500000000000007 14.500000000000002 18.500000000000004 9.5000000000000018 42.500000000000007 12.500000000000002 12.500000000000002 17.500000000000004
decision_type=1 1 2 2 2 2 2 2 2 2 2 2 2 2 2 2 2 2 2 2 2 2 2 2 2 2 2 2 2 2
left_child=1 4 5 8 15 7 -6 13 9 -3 -10 21 20 -2 22 -1 -17 18 -9 -11 -7 -5 -12 26 25 -15 -22 -25 29 -27
right_child=2 3 -4 11 6 12 -8 17 10 19 14 -13 -14 24 -16 16 -18 -19 -20 -21 23 -23 -24 27 -26 28 -28 -29 -30 -31
leaf_value=1.4722473476244058 -0.62432509871090158 -1.9882721594401769 5.6739528928484235 0.62340175991966618 3.8884544660647715 -1.9850321715877906 8.3059145538895223 -1.2561044234654 -1.7082460793216576 3.9370917618274692 0.41445870647827787 3.5310256542478293 1.3409346919059755 -3.058805903521451 -1.4482719025441579 4.8458714294433598 2.4070932441287574 -2.2829243421554568 0.82030884325504305 1.6986977736155193 -0.46426802381636612 2.4118184131124747 2.074673582207073 -0.40806708392642793 -3.2095284745693209 -2.4116036134106773 0.88251094818115239 -1.5919593200469631 -2.2354588910240993 -1.2374165346416144
leaf_weight=23 34 28 21 42 24 31 27 29 89 20 36 35 25 66 21 35 27 26 32 21 63 23 22 21 50 21 20 39 107 52
leaf_count=23 34 28 21 42 24 31 27 29 89 20 36 35 25 66 21 35 27 26 32 21 63 23 22 21 50 21 20 39 107 52
internal_value=0 1.50754 -1.23403 0.409508 4.01398 -1.48956 6.22711 -1.93597 -0.266419 0.851346 -0.725502 2.05241 -0.554106 -2.23566 0.381641 3.15834 3.78382 -0.799232 -0.166838 2.7906 -0.826382 1.25623 1.0442 -0.575206 -2.42075 -2.26043 -0.139743 -1.1776 -1.96769 -1.5752
internal_weight=0 473 637 337 136 616 51 417 237 69 168 100 199 330 79 85 62 87 61 41 174 65 58 143 296 246 83 60 180 73
internal_count=1110 473 637 337 136 616 51 417 237 69 168 100 199 330 79 85 62 87 61 41 174 65 58 143 296 246 83 60 180 73
cat_boundaries=0 1 2
cat_threshold=97 48
is_linear=0
shrinkage=0.05


Tree=5
num_leaves=31
num_cat=2
split_feature=0 1 5 2 7 2 7 10 3 4 2 7 2 2 3 7 7 2 2 3 5 3 3 5 2 2 2 4 4 3
split_gain=893773 491979 317529 243564 181638 128550 101106 85429.8 75743.1 54091.4 31393.3 31109.8 31283.8 30479.7 28304.4 27876.6 24046.5 22449.4 22463 19807 19768.8 19721.9 16417.3 13194.7 11402.9 10330.4 18580.7 9625.47 8223.42 18040.2
threshold=0 1 1.0000000180025095e-35 147.50000000000003 3.5000000000000004 122.50000000000001 3.5000000000000004 246.50000000000003 14.500000000000002 19.500000000000004 112.50000000000001 1.0000000180025095e-35 129.50000000000003 117.50000000000001 18.500000000000004 1.0000000180025095e-35 3.5000000000000004 122.50000000000001 92.500000000000014 8.5000000000000018 1.0000000180025095e-35 14.500000000000002 7.5000000000000009 27.500000000000004 92.500000000000014 112.50000000000001 102.50000000000001 14.500000000000002 10.500000000000002 12.500000000000002
decision_type=1 1 2 2 2 2 2 2 2 2 2 2 2 2 2 2 2 2 2 2 2 2 2 2 2 2 2 2 2 2
left_child=1 2 -1 6 11 -6 9 8 10 15 24 12 -4 14 28 17 -10 18 -2 -9 -17 -13 -22 -21 -3 26 -11 -20 -8 -30
right_child=3 7 4 -5 5 -7 13 19 16 25 -12 21 -14 -15 -16 20 -18 -19 27 23 22 -23 -24 -25 -26 -27 -28 -29 29 -31
leaf_value=-0.19534856744256676 -0.82165798108969179 1.5801103110425174 3.2701526035646014 2.6245054662227632 4.8722586757258366 9.8246342277526857 -0.98978189704369535 -0.22259324644842457 -1.5108814214958866 -2.8221449476299867 2.6607196871827288 3.1470369420732771 5.6033907842636115 1.1471001003099526 -2.1063256506666992 -3.4865817507108057 0.36961119332734277 0.082893426550759208 -2.5194816898792349 -2.7184943525687508 -3.0221701074529577 1.308316384792328 -1.6370349156769735 -1.1768466854095461 0.068745004213773289 -2.2405865900573274 -4.7535233306884761 -1.3611316524702928 1.0958267052968345 -0.58984935567929198
leaf_weight=51 67 24 51 38 38 20 49 31 34 33 41 35 20 23 33 24 34 27 47 23 27 25 103 35 26 21 20 29 21 65
leaf_count=51 67 24 51 38 38 20 49 31 34 33 41 35 20 23 33 24 34 27 47 23 27 25 103 35 26 21 20 29 21 65
internal_value=0 1.59188 3.1735 -1.23558 4.25047 6.57997 -1.5056 -0.00239945 0.691801 -1.95941 1.63516 3.21908 3.9274 -0.559961 -0.793666 -1.68084 -0.570635 -1.23942 -1.48909 -1.24287 -2.16812 2.3809 -1.92472 -1.78819 0.7942 -3.1791 -3.55097 -2.07748 -0.472794 -0.178231
internal_weight=0 488 240 627 189 58 589 248 159 398 91 131 71 191 168 324 68 170 143 89 154 60 130 58 50 74 53 76 135 86
internal_count=1115 488 240 627 189 58 589 248 159 398 91 131 71 191 168 324 68 170 143 89 154 60 130 58 50 74 53 76 135 86
cat_boundaries=0 1 2
cat_threshold=97 56
is_linear=0
shrinkage=0.05


Tree=6
num_leaves=31
num_cat=2
split_feature=0 1 5 2 7 2 7 10 3 4 2 7 2 2 3 7 6 7 2 2 4 2 5 3 5 6 6 3 2 2
split_gain=806630 444011 286570 219817 163928 116017 91248.1 77100.4 68358.2 48817.5 28332.5 28076.6 28233.7 27507.9 25544.7 25158.6 24295 21702 20260.6 20272.9 18034.1 17957.1 17841.4 14816.6 14319.7 10666.5 11109.5 10594.7 9323.21 16769.1
threshold=0 1 1.0000000180025095e-35 147.50000000000003 3.5000000000000004 122.50000000000001 3.5000000000000004 246.50000000000003 14.500000000000002 19.500000000000004 112.50000000000001 1.0000000180025095e-35 129.50000000000003 117.50000000000001 18.500000000000004 1.0000000180025095e-35 32.500000000000007 3.5000000000000004 122.50000000000001 92.500000000000014 9.5000000000000018 117.50000000000001 1.0000000180025095e-35 7.5000000000000009 27.500000000000004 42.500000000000007 7.5000000000000009 13.500000000000002 112.50000000000001 102.50000000000001
decision_type=1 1 2 2 2 2 2 2 2 2 2 2 2 2 2 2 2 2 2 2 2 2 2 2 2 2 2 2 2 2
left_child=1 2 -1 6 11 -6 9 8 10 15 16 12 -4 14 -8 18 -3 -10 19 -2 -9 -13 -17 -24 -22 26 -25 -28 29 -11
right_child=3 7 4 -5 5 -7 13 20 17 28 -12 21 -14 -15 -16 22 -18 -19 -20 -21 24 -23 23 25 -26 -27 27 -29 -30 -31
leaf_value=-0.18558116634102428 -0.78057506974063706 1.8566471471786501 3.1066449660880893 2.4932801327030911 4.628645678570396 9.3334028053283689 -0.44915409661001632 0.14127404538914562 -1.4353373218985166 -2.6810376875328297 2.5276836499935245 3.3589648454085643 5.3232214140892031 1.0897450488546621 -2.0010093887646994 -3.3122526327768962 -0.34766645932197576 0.35113057476632736 0.078748757750899706 -1.9736057086994774 -2.5825696447621223 1.5798730581193359 -2.8710615846845844 -2.209919113204593 -1.0545871254218662 -2.3679743211844873 -0.073939141382773729 -1.4941299734444455 -2.1285572350025177 -4.51584716796875
leaf_weight=51 67 25 51 38 38 20 135 20 34 33 41 23 20 23 33 24 25 34 27 76 23 37 27 21 46 29 24 29 21 20
leaf_count=51 67 25 51 38 38 20 135 20 34 33 41 23 20 23 33 24 25 34 27 76 23 37 27 21 46 29 24 29 21 20
internal_value=0 1.51229 3.01483 -1.17381 4.03794 6.25098 -1.43032 -0.0022795 0.657211 -1.86144 1.5534 3.05813 3.73103 -0.531963 -0.753983 -1.5968 0.75449 -0.542103 -1.17745 -1.41463 -1.18073 2.26186 -2.05972 -1.82848 -1.56391 -1.55518 -1.23666 -0.851025 -3.02015 -3.37342
internal_weight=0 488 240 627 189 58 589 248 159 398 91 131 71 191 168 324 50 68 170 143 89 60 154 130 69 103 74 53 74 53
internal_count=1115 488 240 627 189 58 589 248 159 398 91 131 71 191 168 324 50 68 170 143 89 60 154 130 69 103 74 53 74 53
cat_boundaries=0 1 2
cat_threshold=97 56
is_linear=0
shrinkage=0.05


Tree=7
num_leaves=31
num_cat=2
split_feature=0 1 5 2 10 2 10 10 3 4 2 10 2 2 3 10 6 10 2 2 3 4 5 6 3 6 6 3 4 2
split_gain=727984 400720 258630 198385 147945 104705 82351.4 69583.1 61693.3 44057.8 25570.1 25339.2 25480.9 24825.9 23054.1 22705.6 21926.2 19586 18285.2 18296.3 17726.6 16445 16101.8 13463.7 13372 9626.5 10026.3 9561.68 8686.99 8414.2
threshold=0 1 1.0000000180025095e-35 147.50000000000003 245.50000000000003 122.50000000000001 245.50000000000003 246.50000000000003 14.500000000000002 19.500000000000004 112.50000000000001 246.50000000000003 129.50000000000003 117.50000000000001 18.500000000000004 246.50000000000003 32.500000000000007 245.50000000000003 122.50000000000001 92.500000000000014 14.500000000000002 10.500000000000002 1.0000000180025095e-35 22.500000000000004 7.5000000000000009 42.500000000000007 7.5000000000000009 13.500000000000002 14.500000000000002 112.50000000000001
decision_type=1 1 2 2 2 2 2 2 2 2 2 2 2 2 2 2 2 2 2 2 2 2 2 2 2 2 2 2 2 2
left_child=1 2 -1 6 5 -4 13 8 10 15 16 12 -6 14 -2 18 -3 -10 19 -8 -13 -9 -17 -23 -24 26 -26 -28 -21 -11
right_child=3 7 4 -5 11 -7 9 21 17 29 -12 20 -14 -15 -16 22 -18 -19 -20 28 -22 23 24 -25 25 -27 27 -29 -30 -31
leaf_value=-0.17630211027868678 -0.42669638307834118 1.7638148002624512 4.3972133736861378 2.3686160798135556 2.9513127206587324 8.8667326164245619 -0.74154630800458932 -0.14407420191785386 0.33357406153398406 -3.2047476939435278 2.4012995190736728 2.8751096180507116 5.0570602530241011 1.0352578660716183 -1.9009589365034394 -3.1466400184979042 -0.33028313755989075 -1.3635705211583307 0.074811382646913879 -2.2948273006905899 1.1318832820653915 -2.4804221248626712 -2.727508514898795 -0.96119123509951998 -2.0994231990405492 -2.2495756020062956 -0.070242163538932798 -1.4194235094662373 -1.1943947841381204 -2.0221294204394025
leaf_weight=51 135 25 38 38 51 20 67 29 34 53 41 35 20 23 33 24 25 34 27 47 25 25 27 35 21 29 24 29 29 21
leaf_count=51 135 25 38 38 51 20 67 29 34 53 41 35 20 23 33 24 25 34 27 47 25 25 27 35 21 29 24 29 29 21
internal_value=0 1.43667 2.86409 -1.11512 3.83605 5.93843 -1.3588 -0.00216553 0.62435 -1.76837 1.47573 2.90522 3.54448 -0.505365 -0.716284 -1.51696 0.716766 -0.514998 -1.11858 -1.3439 2.14877 -1.12169 -1.95673 -1.5942 -1.73706 -1.47742 -1.17482 -0.808473 -1.87493 -2.86914
internal_weight=0 488 240 627 189 58 589 248 159 398 91 131 71 191 168 324 50 68 170 143 60 89 154 60 130 103 74 53 76 74
internal_count=1115 488 240 627 189 58 589 248 159 398 91 131 71 191 168 324 50 68 170 143 60 89 154 60 130 103 74 53 76 74
cat_boundaries=0 1 2
cat_threshold=97 56
is_linear=0
shrinkage=0.05


Tree=8
num_leaves=31
num_cat=3
split_feature=0 1 6 2 2 7 10 3 4 10 6 2 4 2 2 3 2 1 7 6 7 4 3 2 6 7 6 2 2 4
split_gain=657006 361650 218070 179042 108881 74322.1 62798.8 55678.2 39762.2 38215.7 32620.9 29670 24603 23077 22405.4 20806.3 20710.8 24842.4 20560.9 19788.4 17676.4 15033.5 14502.5 13475 12077.5 10591.5 9504.56 7593.81 15134.1 7421.64
threshold=0 1 1.0000000180025095e-35 147.50000000000003 137.50000000000003 3.5000000000000004 246.50000000000003 14.500000000000002 19.500000000000004 246.50000000000003 12.500000000000002 117.50000000000001 14.500000000000002 112.50000000000001 117.50000000000001 18.500000000000004 122.50000000000001 2 1.0000000180025095e-35 32.500000000000007 3.5000000000000004 9.5000000000000018 13.500000000000002 107.50000000000001 37.500000000000007 3.5000000000000004 7.5000000000000009 112.50000000000001 102.50000000000001 10.500000000000002
decision_type=1 1 2 2 2 2 2 2 2 2 2 2 2 2 2 2 2 1 2 2 2 2 2 2 2 2 2 2 2 2
left_child=1 2 12 5 9 8 7 13 16 10 -4 -11 -1 19 15 29 17 18 -2 -3 -9 -8 -18 -12 -20 -25 -19 28 -10 -7
right_child=3 6 4 -5 -6 14 21 20 27 11 23 -13 -14 -15 -16 -17 22 26 24 -21 -22 -23 -24 25 -26 -27 -28 -29 -30 -31
leaf_value=-1.5490833735466003 -0.3595348198924746 1.6756240196228029 2.261093890326364 2.2501854101293968 6.3462302549680079 -0.89650028025617401 0.14141400824300945 -1.2953919833197314 -2.3867483767596158 3.1415083625099878 3.1107787857055667 0.57312389038827116 0.76466542681058247 2.2812344940697278 0.98349489751069441 -1.8059109466404402 0.056395541599818647 -2.9859312111990794 -0.95732264518737797 -0.31376894831657415 0.31689537518164695 -1.4154660620551178 -1.5818681413477118 3.8688477266219352 -2.3792575563703262 5.2234105483801283 -2.031021846801627 -1.9210229317347212 -4.1298173570632937 -0.1255267184487609
leaf_weight=20 70 25 35 38 30 49 20 34 33 22 25 23 27 41 23 33 35 35 32 25 34 69 22 31 28 27 102 21 20 86
leaf_count=20 70 25 35 38 30 49 20 34 33 22 25 23 27 41 23 33 35 35 32 25 34 69 22 31 28 27 102 21 20 86
internal_value=0 1.36484 2.72088 -1.05936 3.57801 -1.29086 -0.00205725 0.593133 -1.67995 3.06852 3.54131 1.82878 -0.219909 1.40194 -0.480097 -0.680469 -1.44111 -1.62582 -0.874436 0.680928 -0.489248 -1.06561 -0.575917 4.08115 -1.62089 4.49942 -2.12022 -2.72568 -3.04451 -0.405362
internal_weight=0 488 240 627 193 589 248 159 398 163 118 45 47 91 191 168 324 267 130 50 68 89 57 83 60 58 137 74 53 135
internal_count=1115 488 240 627 193 589 248 159 398 163 118 45 47 91 191 168 324 267 130 50 68 89 57 83 60 58 137 74 53 135
cat_boundaries=0 1 2 3
cat_threshold=97 56 112
is_linear=0
shrinkage=0.05


Tree=9
num_leaves=31
num_cat=2
split_feature=0 1 5 2 7 2 7 10 3 4 7 2 2 2 7 3 7 2 2 2 2 2 5 3 2 4 2 2 4 3
split_gain=592947 326389 219169 161586 128417 91236.7 67075.7 56675.9 50249.6 35885.4 21631.4 21952.3 20827 20220.8 19252.8 18777.7 15953 15623.6 15558 15778.7 14572 15158.2 14255.1 11970.5 10291.1 7594.71 6853.42 13658.5 6698.03 16281.3
threshold=0 1 1.0000000180025095e-35 147.50000000000003 3.5000000000000004 122.50000000000001 3.5000000000000004 246.50000000000003 14.500000000000002 19.500000000000004 1.0000000180025095e-35 129.50000000000003 112.50000000000001 117.50000000000001 1.0000000180025095e-35 18.500000000000004 3.5000000000000004 117.50000000000001 122.50000000000001 92.500000000000014 92.500000000000014 112.50000000000001 1.0000000180025095e-35 7.5000000000000009 92.500000000000014 14.500000000000002 112.50000000000001 102.50000000000001 10.500000000000002 12.500000000000002
decision_type=1 1 2 2 2 2 2 2 2 2 2 2 2 2 2 2 2 2 2 2 2 2 2 2 2 2 2 2 2 2
left_child=1 2 -1 6 10 -6 9 8 12 14 11 -4 24 15 18 28 -10 -12 19 -2 -9 -22 -16 -24 -3 -21 27 -11 -8 -30
right_child=3 7 4 -5 5 -7 13 20 16 26 17 -13 -14 -15 22 -17 -18 -19 -20 25 21 -23 23 -25 -26 -27 -28 -29 29 -31
leaf_value=-0.21616340308797125 -0.65067520239459942 1.3934956582883995 2.6502794415343045 2.137676098707475 3.9974688529968265 8.1696387863159181 -0.85167526164833385 0.040572301003461084 -1.2306223521776061 -2.2674109261595841 2.9346264134282656 4.6047934436798093 2.1671727386916557 0.93432021763013751 -2.8936087631930909 -1.7156154138572288 0.30105061811559342 1.275150150866122 0.098589229583740237 -2.0958112024246378 -2.1301719665527346 -0.60144585909381998 -2.5044295990908587 -1.3216672944212424 -0.042301418231083798 -1.0668846175588411 -1.8249717689695815 -3.9233265733718876 1.0911042599450975 -0.51028802414353081
leaf_weight=51 67 24 51 38 38 20 49 24 34 33 23 20 41 23 24 33 34 37 27 47 34 31 27 103 26 29 21 20 21 65
leaf_count=51 67 24 51 38 38 20 49 24 34 33 23 20 41 23 24 33 34 37 27 47 34 31 27 103 26 29 21 20 21 65
internal_value=0 1.2966 2.58484 -1.00639 3.47743 5.43615 -1.22632 -0.00195438 0.563476 -1.59595 2.61021 3.20085 1.33185 -0.456092 -1.36906 -0.646446 -0.464786 1.91128 -1.00221 -1.21006 -1.01233 -1.40109 -1.77401 -1.56732 0.646881 -1.70319 -2.5894 -2.89228 -0.385093 -0.11925
internal_weight=0 488 240 627 189 58 589 248 159 398 131 71 91 191 324 168 68 60 170 143 89 65 154 130 50 76 74 53 135 86
internal_count=1115 488 240 627 189 58 589 248 159 398 131 71 91 191 324 168 68 60 170 143 89 65 154 130 50 76 74 53 135 86
cat_boundaries=0 1 2
cat_threshold=97 56
is_linear=0
shrinkage=0.05


Tree=10
num_leaves=31
num_cat=3
split_feature=2 0 10 1 7 5 7 6 6 2 2 7 4 4 5 6 6 2 1 7 2 2 4 4 6 5 6 5 6 2
split_gain=548096 336404 215812 172428 146752 144588 105002 68871 68442.4 76023.9 63396.7 44215.3 29079.3 27523.2 27410.3 24670.6 19854.7 19726.2 22381.7 21129.8 15965.1 12814.6 11395.7 10586.8 14590.4 9792 13005 9628.8 8965.08 8265.91
threshold=132.50000000000003 0 246.50000000000003 1 3.5000000000000004 1.0000000180025095e-35 3.5000000000000004 17.500000000000004 1.0000000180025095e-35 72.500000000000014 122.50000000000001 1.0000000180025095e-35 18.500000000000004 18.500000000000004 42.500000000000007 27.500000000000004 27.500000000000004 129.50000000000003 2 1.0000000180025095e-35 117.50000000000001 112.50000000000001 9.5000000000000018 13.500000000000002 32.500000000000007 17.500000000000004 27.500000000000004 12.500000000000002 32.500000000000007 82.500000000000014
decision_type=2 1 2 1 2 2 2 2 2 2 2 2 2 2 2 2 2 2 1 2 2 2 2 2 2 2 2 2 2 2
left_child=1 3 7 14 8 -6 13 -2 -5 16 22 15 21 17 25 -11 -10 18 19 -3 -13 -7 -8 -24 29 -1 -27 -15 -21 -25
right_child=2 6 -4 4 5 12 10 -9 9 11 -12 20 -14 27 -16 -17 -18 -19 -20 28 -22 -23 23 24 -26 26 -28 -29 -30 -31
leaf_value=-2.572062544595628 3.4161716567145457 -0.14754645496101704 0.38216921932557052 -1.319301925442721 -0.90617846652865419 3.7251279325320805 -1.2544780382514 6.756777943505182 3.2619706593241014 0.22989143421573024 2.3353920893235638 -1.5791395129828618 2.4439905276665321 -1.3466220624744893 0.019548351700241502 2.2774001832519257 1.3172734257720766 -0.081194602118598094 -1.9484842775619193 -0.97535073152094187 0.20706248635595498 5.2247503357274194 0.44010251561800645 -1.775215356707573 0.13361053807394846 -2.0247664451599121 -0.31417150378227232 -2.5716876659128403 -2.2612893643586531 -0.53458253525454424
leaf_weight=21 27 59 34 38 20 29 40 36 35 31 22 29 26 20 37 28 21 27 136 33 22 28 36 25 42 25 20 81 23 29
leaf_count=21 27 59 34 38 20 29 40 36 35 31 22 29 26 20 37 28 21 27 136 33 22 28 36 25 42 25 20 81 23 29
internal_value=0 -0.347038 3.59252 0.740242 1.32837 2.91012 -1.11842 5.32509 0.594865 1.03305 -0.191899 0.269583 3.8297 -1.62219 -0.975156 1.20159 2.53271 -1.36537 -1.50351 -0.743212 -0.808621 4.46178 -0.515157 -0.291121 -0.56533 -1.68054 -1.2645 -2.3291 -1.5035 -1.10895
internal_weight=0 983 97 410 307 103 573 63 204 166 194 110 83 379 103 59 56 278 251 115 51 57 172 132 96 66 45 101 56 54
internal_count=1080 983 97 410 307 103 573 63 204 166 194 110 83 379 103 59 56 278 251 115 51 57 172 132 96 66 45 101 56 54
cat_boundaries=0 1 2 3
cat_threshold=97 5 112
is_linear=0
shrinkage=0.05


Tree=11
num_leaves=31
num_cat=2
split_feature=1 2 0 10 7 10 2 2 3 7 6 2 7 3 2 5 6 3 2 2 2 3 5 5 7 2 3 6 3 3
split_gain=508054 405402 245059 204272 111993 79700.4 74914.2 66784.2 60994.8 44457 44426.6 56166.9 38048.2 34088.4 29241.4 24951.7 26106.2 28021 24084.6 23692.9 21161.2 18816.3 17977.2 13956.1 13384.7 12099.9 9776.42 9183.52 11655.3 12867
threshold=0 129.50000000000003 1 246.50000000000003 3.5000000000000004 246.50000000000003 72.500000000000014 107.50000000000001 17.500000000000004 3.5000000000000004 1.0000000180025095e-35 57.500000000000007 3.5000000000000004 18.500000000000004 97.500000000000014 7.5000000000000009 27.500000000000004 14.500000000000002 122.50000000000001 87.500000000000014 129.50000000000003 8.5000000000000018 17.500000000000004 7.5000000000000009 1.0000000180025095e-35 107.50000000000001 7.5000000000000009 12.500000000000002 9.5000000000000018 14.500000000000002
decision_type=1 2 1 2 2 2 2 2 2 2 2 2 2 2 2 2 2 2 2 2 2 2 2 2 2 2 2 2 2 2
left_child=1 5 4 12 6 7 10 19 15 13 -2 22 -3 20 -11 -6 17 21 27 -1 23 -17 -12 -4 -22 -16 -25 -8 -29 -30
right_child=2 3 9 -5 8 -7 18 -9 -10 14 11 -13 -14 -15 25 16 -18 -19 -20 -21 24 -23 -24 26 -26 -27 -28 28 29 -31
leaf_value=1.4510381159328281 -1.0104617448789734 5.9015707774595789 -0.68522150357564293 1.7131651560465497 0.5880029205353029 -1.7596379553830184 -0.44845864388250539 2.9963589260975523 -0.51564345496041442 -1.4828409537402067 -0.40860318426162973 3.1748721899809662 8.7802898009618122 -2.742699885983316 1.086459854245186 1.2405135878494808 3.2036993157863622 0.024939954280853271 0.15361981959570023 -0.75420129522681245 0.4502426998955863 3.3571323031470892 1.3083351785937944 -2.5484924958302426 -1.2328329907523263 -0.34624941865248338 -1.6353544911085551 -2.176817272731236 -0.17193634108855174 -1.5432731805443765
leaf_weight=21 28 22 30 24 31 27 31 36 35 55 31 27 24 63 20 21 40 20 42 29 21 21 30 39 27 56 118 35 26 50
leaf_count=21 28 22 30 24 31 27 31 36 35 55 31 27 24 63 20 21 40 20 42 29 21 21 30 39 27 56 118 35 26 50
internal_value=0 2.3349 -0.490233 5.45254 0.3015 0.610254 -0.270869 1.35429 1.34154 -1.34113 0.724241 1.27619 7.40351 -1.70987 -0.60471 1.83027 2.20782 1.56531 -0.898222 0.171999 -1.43298 2.29882 0.435793 -1.67337 -0.496487 0.0307793 -1.86218 -1.20933 -1.42183 -1.07413
internal_weight=0 183 897 70 468 113 300 86 168 429 116 88 46 298 131 133 102 62 184 50 235 42 61 187 48 76 157 142 111 76
internal_count=1080 183 897 70 468 113 300 86 168 429 116 88 46 298 131 133 102 62 184 50 235 42 61 187 48 76 157 142 111 76
cat_boundaries=0 1 2
cat_threshold=16 105
is_linear=0
shrinkage=0.05


Tree=12
num_leaves=31
num_cat=2
split_feature=1 2 0 10 7 6 2 3 6 7 6 2 7 3 2 3 2 2 5 6 5 5 7 2 2 3 7 3 3 6
split_gain=458519 365875 221166 184355 101074 73440.7 67610.1 55047.8 54187.8 40122.5 40095.1 50690.6 34338.5 30764.8 26390.4 23595.9 21736.3 19097.9 16224.4 14591.3 23362.9 12595.4 12079.7 10920.1 8860.95 14215.2 11248.9 18152 8823.22 6064.33
threshold=0 129.50000000000003 1 246.50000000000003 3.5000000000000004 42.500000000000007 72.500000000000014 17.500000000000004 37.500000000000007 3.5000000000000004 1.0000000180025095e-35 57.500000000000007 3.5000000000000004 18.500000000000004 97.500000000000014 7.5000000000000009 122.50000000000001 129.50000000000003 17.500000000000004 27.500000000000004 22.500000000000004 7.5000000000000009 1.0000000180025095e-35 107.50000000000001 92.500000000000014 8.5000000000000018 1.0000000180025095e-35 14.500000000000002 7.5000000000000009 7.5000000000000009
decision_type=1 2 1 2 2 2 2 2 2 2 2 2 2 2 2 2 2 2 2 2 2 2 2 2 2 2 2 2 2 2
left_child=1 5 4 12 6 8 10 15 -1 13 -2 18 -3 17 29 -6 24 21 -12 20 -17 -4 -19 -16 -8 -26 27 -27 -23 -11
right_child=2 3 9 -5 7 -7 16 -9 -10 14 11 -13 -14 -15 23 19 -18 22 -20 -21 -22 28 -24 -25 25 26 -28 -29 -30 -31
leaf_value=0.91107410600891825 -0.95993869560105471 5.6064922831275252 -0.65096045653025314 1.6275069038073224 0.60232773458256439 3.0343855948497853 -0.45826753420489175 -0.48986125775745937 -1.6146436800275532 -2.0517206061970104 -0.38817304622742443 3.0161286142137316 8.3412754058837901 -2.6055649174584286 1.0321368658542633 2.4825448975349085 0.14593882674262637 0.42773057506197976 1.242918430566788 2.9874889330430463 0.56920845552727029 -2.421067873331217 -1.1711913444377759 -0.32893697087253848 -2.3199142118980145 0.62509428024291991 -1.6554317996308612 -1.4796484288715182 -1.5535867547584794 -0.98001778125762939
leaf_weight=54 28 22 30 24 34 24 35 35 35 22 31 27 24 63 20 39 42 21 30 33 27 39 27 56 29 20 37 21 118 33
leaf_count=54 28 22 30 24 34 24 35 35 35 22 31 27 24 63 20 39 42 21 30 33 27 39 27 56 29 20 37 21 118 33
internal_value=0 2.21816 -0.465721 5.17991 0.286425 0.579741 -0.257326 1.27446 -0.0821857 -1.27408 0.688029 1.21238 7.03334 -1.62438 -0.574475 1.73875 -0.853311 -1.36133 0.414003 2.12904 1.69982 -1.5897 -0.471663 0.0292404 -1.14886 -1.37476 -1.02336 -0.452945 -1.76908 -1.4087
internal_weight=0 183 897 70 468 113 300 168 89 429 116 88 46 298 131 133 184 235 61 99 66 187 48 76 142 107 78 41 157 55
internal_count=1080 183 897 70 468 113 300 168 89 429 116 88 46 298 131 133 184 235 61 99 66 187 48 76 142 107 78 41 157 55
cat_boundaries=0 1 2
cat_threshold=16 105
is_linear=0
shrinkage=0.05


Tree=13
num_leaves=31
num_cat=2
split_feature=1 2 0 10 7 10 2 2 3 7 6 2 7 3 2 5 6 3 6 2 2 3 5 5 7 2 6 3 3 3
split_gain=413813 330202 199602 166381 91219.4 70616.5 61018.1 58133.5 49680.7 36210.5 36185.8 45748.3 30990.5 27765.2 23817.3 22759 21872.5 25261 20902.9 19617.1 17235.9 16162.7 14642.6 11367.4 10901.9 9855.42 8070.88 9866.71 10774.4 7962.95
threshold=0 129.50000000000003 1 246.50000000000003 3.5000000000000004 246.50000000000003 72.500000000000014 107.50000000000001 17.500000000000004 3.5000000000000004 1.0000000180025095e-35 57.500000000000007 3.5000000000000004 18.500000000000004 97.500000000000014 7.5000000000000009 27.500000000000004 14.500000000000002 37.500000000000007 122.50000000000001 129.50000000000003 8.5000000000000018 17.500000000000004 7.5000000000000009 1.0000000180025095e-35 107.50000000000001 12.500000000000002 9.5000000000000018 14.500000000000002 7.5000000000000009
decision_type=1 2 1 2 2 2 2 2 2 2 2 2 2 2 2 2 2 2 2 2 2 2 2 2 2 2 2 2 2 2
left_child=1 5 4 12 6 7 10 18 15 13 -2 22 -3 20 -11 -6 17 21 -1 26 23 -17 -12 -4 -22 -16 -8 -28 -29 -25
right_child=2 3 9 -5 8 -7 19 -9 -10 14 11 -13 -14 -15 25 16 -18 -19 -20 -21 24 -23 -24 29 -26 -27 27 28 -30 -31
leaf_value=1.0916035584829471 -0.91194178589752739 5.326167649030686 -0.61841240882873538 1.5461315701405207 0.46539092477290861 -1.6799978031052483 -0.3781287747044717 2.7831384629011158 -0.46536819253649031 -1.3382639494809239 -0.3687643404929869 2.8653221730832703 7.9242117007573443 -2.4752866404397147 0.9805299735069275 1.1398913025856019 2.9239544272422791 -0.038250856995582588 -0.95961522019427759 0.13864192394983202 0.40634401866367886 3.1015929698944094 1.1807724967598916 -2.3000144872909938 -1.1126317275895012 -0.31249010552253043 -1.9852797132517612 -0.14514431621019658 -1.400022392988205 -1.4759074293960959
leaf_weight=27 28 22 30 24 31 27 31 36 35 55 31 27 24 63 20 21 40 20 23 42 21 21 30 39 27 56 35 26 50 118
leaf_count=27 28 22 30 24 31 27 31 36 35 55 31 27 24 63 20 21 40 20 23 42 21 21 30 39 27 56 35 26 50 118
internal_value=0 2.10725 -0.442435 4.92091 0.272104 0.550754 -0.24446 1.25111 1.21074 -1.21037 0.653628 1.15176 6.68167 -1.54316 -0.545751 1.65182 2.0124 1.42429 0.148043 -0.810645 -1.29327 2.12074 0.393303 -1.51021 -0.44808 0.0277783 -1.09142 -1.29063 -0.970722 -1.68062
internal_weight=0 183 897 70 468 113 300 86 168 429 116 88 46 298 131 133 102 62 50 184 235 42 61 187 48 76 142 111 76 157
internal_count=1080 183 897 70 468 113 300 86 168 429 116 88 46 298 131 133 102 62 50 184 235 42 61 187 48 76 142 111 76 157
cat_boundaries=0 1 2
cat_threshold=16 105
is_linear=0
shrinkage=0.05


Tree=14
num_leaves=31
num_cat=2
split_feature=1 2 0 10 7 10 2 2 2 4 7 5 2 7 3 5 4 2 3 5 2 2 5 3 5 7 5 3 2 3
split_gain=373467 298007 180141 150159 82325.5 63731.4 55068.8 52465.5 47615.3 57535.5 32680 31861.9 29638.6 27969 25058.1 24793.9 23659.6 19355.2 22092.6 18848.9 17704.4 15555.4 14114.6 34000.1 10259 9839 8873.02 8221.38 7949.82 12057.3
threshold=0 129.50000000000003 1 246.50000000000003 3.5000000000000004 246.50000000000003 72.500000000000014 107.50000000000001 122.50000000000001 19.500000000000004 3.5000000000000004 1.0000000180025095e-35 57.500000000000007 3.5000000000000004 18.500000000000004 7.5000000000000009 9.5000000000000018 97.500000000000014 12.500000000000002 7.5000000000000009 122.50000000000001 129.50000000000003 22.500000000000004 14.500000000000002 7.5000000000000009 1.0000000180025095e-35 22.500000000000004 14.500000000000002 92.500000000000014 8.5000000000000018
decision_type=1 2 1 2 2 2 2 2 2 2 2 2 2 2 2 2 2 2 2 2 2 2 2 2 2 2 2 2 2 2
left_child=1 5 4 13 6 7 11 19 9 15 14 -2 27 -3 21 -6 -12 -18 -19 -1 28 24 -17 -24 -4 -23 -20 -13 -8 -30
right_child=2 3 10 -5 8 -7 20 -9 -10 -11 16 12 -14 -15 -16 22 17 18 26 -21 -22 25 23 -25 -26 -27 -28 -29 29 -31
leaf_value=-0.95456422025507148 -0.72163693932816386 5.0598593183539133 -0.58749179363250736 1.4688249895970027 -0.13088304480910304 -1.5959978757081208 -0.38272151555333822 2.6439815404514473 3.0738064695287637 -1.3423275663302494 -1.837245602077908 1.0729681656641119 2.6619451854539955 7.5280009309450797 -2.3515223291185166 2.4339638015202114 -1.0566824103013064 1.734969667196274 0.48831401666005453 1.0011589997581074 0.13170982542492093 0.38602681926318577 2.2034796118736266 -0.31682090500126714 -1.5965908136141671 -1.0570001800855002 -0.91901826063791914 -0.095685441405684857 -2.121280254988835 -0.92718192887229811
leaf_weight=22 32 22 30 24 25 27 35 36 27 26 27 34 23 24 63 35 39 20 21 28 42 21 32 23 157 27 24 27 29 78
leaf_count=22 32 22 30 24 25 27 35 36 27 26 27 34 23 24 63 35 39 20 21 28 42 21 32 23 157 27 24 27 29 78
internal_value=0 2.00189 -0.420313 4.67487 0.258499 0.523216 -0.232237 1.18855 1.1502 0.781848 -1.14986 0.620946 1.13241 6.34759 -1.466 1.2621 -0.518463 -0.176087 0.35227 0.140641 -0.770113 -1.2286 1.64904 1.14954 -1.4347 -0.425676 -0.262263 0.555695 -1.03685 -1.25082
internal_weight=0 183 897 70 468 113 300 86 168 141 429 116 84 46 298 115 131 104 65 50 184 235 90 55 187 48 45 61 142 107
internal_count=1080 183 897 70 468 113 300 86 168 141 429 116 84 46 298 115 131 104 65 50 184 235 90 55 187 48 45 61 142 107
cat_boundaries=0 1 2
cat_threshold=16 105
is_linear=0
shrinkage=0.05


Tree=15
num_leaves=31
num_cat=3
split_feature=0 2 7 2 5 5 1 5 4 4 6 10 1 2 4 7 4 6 2 6 5 4 4 2 2 4 5 4 4 6
split_gain=332066 165679 108790 106778 62104.3 56035 52832.8 79629.5 47531.6 42328.3 42071.8 40829.9 43588.1 60268 24739.9 24013.2 18150.4 17088.8 31484 13237.2 12955.9 12484.9 31040.9 12288.7 10696 9447.98 9315.21 8703.14 7611.56 8621.7
threshold=0 137.50000000000003 3.5000000000000004 147.50000000000003 1.0000000180025095e-35 12.500000000000002 1 1.0000000180025095e-35 16.500000000000004 15.500000000000002 17.500000000000004 246.50000000000003 2 122.50000000000001 11.500000000000002 1.0000000180025095e-35 20.500000000000004 42.500000000000007 117.50000000000001 32.500000000000007 47.500000000000007 10.500000000000002 14.500000000000002 112.50000000000001 72.500000000000014 14.500000000000002 7.5000000000000009 9.5000000000000018 13.500000000000002 32.500000000000007
decision_type=1 2 2 2 2 2 1 2 2 2 2 2 1 2 2 2 2 2 2 2 2 2 2 2 2 2 2 2 2 2
left_child=1 2 6 11 -4 -6 7 -1 14 10 -8 12 13 16 -7 -12 27 18 -9 -11 21 -14 -23 -13 -24 -15 -26 -2 -29 -30
right_child=3 -3 4 -5 5 8 9 17 -10 19 15 23 20 25 -16 -17 -18 -19 -20 -21 -22 22 24 -25 26 -27 -28 28 29 -31
leaf_value=-1.3007601349442095 -2.0245089660672582 5.1908864793570153 -0.56777844451367854 1.8739704887609225 4.6006758401791252 1.9869503674968596 1.8126288319335264 2.3104601133701412 0.59200225800275807 -1.6965250045695204 0.72614072033992183 -1.7782688906881958 -0.77845309067856183 1.1866332102905621 4.2096459547678631 -1.3195844015106559 -2.7166272171906063 2.9915370423008096 0.27441736389608945 -0.35220159659783046 1.10093739706537 1.7747197628021241 -1.2184412033661554 -0.92523795678502041 -0.79241929763839369 -0.18745369006847512 0.51975324357810782 -0.59005528549815334 -1.9379238457075862 -0.79316732924560029
leaf_weight=27 34 23 20 37 24 31 34 43 40 47 26 128 55 22 21 32 28 22 34 30 23 23 23 63 21 29 38 43 38 29
leaf_count=27 34 23 20 37 24 31 34 43 40 47 26 128 55 22 21 32 28 22 34 30 23 23 23 63 21 29 38 43 38 29
internal_value=0 1.03337 0.835479 -0.721126 2.00543 2.44909 0.296111 1.0248 1.88781 -0.290617 0.416112 -0.89404 -0.610427 -1.05684 2.88458 -0.402535 -1.55183 1.76256 1.41143 -1.17276 -0.00823386 -0.168192 0.151469 -1.4969 -0.303833 0.40529 0.0527088 -1.32534 -1.10923 -1.44243
internal_weight=0 454 431 634 136 116 295 126 92 169 92 597 406 223 52 58 172 99 77 77 183 160 105 191 82 51 59 144 110 67
internal_count=1088 454 431 634 136 116 295 126 92 169 92 597 406 223 52 58 172 99 77 77 183 160 105 191 82 51 59 144 110 67
cat_boundaries=0 1 2 3
cat_threshold=97 56 15
is_linear=0
shrinkage=0.05


Tree=16
num_leaves=31
num_cat=3
split_feature=0 1 2 2 7 6 2 1 2 4 10 6 6 2 2 2 6 5 5 3 6 5 3 3 5 3 3 3 4 2
split_gain=299690 150155 96367.3 63617.6 63116.9 41717.1 41512.1 38537.2 46950.1 33035.6 29831.3 27434.6 40295.1 44581.4 25842.9 19761.5 18464.6 17618.6 38342.3 38390.2 16252 14850 14125.4 12811.3 11692.7 15279.8 17225.2 11851.4 11686.4 13992.1
threshold=0 1 147.50000000000003 137.50000000000003 3.5000000000000004 42.500000000000007 57.500000000000007 2 122.50000000000001 18.500000000000004 246.50000000000003 1.0000000180025095e-35 7.5000000000000009 92.500000000000014 112.50000000000001 127.00000000000001 37.500000000000007 7.5000000000000009 22.500000000000004 14.500000000000002 22.500000000000004 22.500000000000004 15.500000000000002 18.500000000000004 47.500000000000007 7.5000000000000009 14.500000000000002 11.500000000000002 9.5000000000000018 97.500000000000014
decision_type=1 1 2 2 2 2 2 1 2 2 2 2 2 2 2 2 2 2 2 2 2 2 2 2 2 2 2 2 2 2
left_child=1 3 7 5 9 6 -1 8 23 11 24 -3 -13 16 -15 -10 -14 -6 -19 -20 -8 -12 -17 28 25 -9 27 -27 29 -2
right_child=2 4 -4 -5 17 -7 20 10 15 -11 21 12 13 14 -16 22 -18 18 19 -21 -22 -23 -24 -25 -26 26 -28 -29 -30 -31
leaf_value=3.1748999565839768 -1.2174949775139492 -0.9532765918307835 1.7802719367517008 4.9313421147673031 0.26044099951783817 3.6571298126516676 -0.045976301282644273 -1.1004018204615398 0.88204279564045107 -1.1228176742269282 -1.7067551631100324 2.6123422622680668 2.3848556866248449 -1.4794184137437796 0.51406564424777856 -0.097262134154637664 0.3546901535420191 3.3658635799701404 2.3380954790115358 -0.49243025727894002 1.6964932003746864 -0.27923113436534486 -1.626690094287579 -2.3819379073523339 1.0458905186342156 -0.062325754642486575 -0.42885594662811077 1.4008567813904056 -1.20897615213548 -2.8916804238007621
leaf_weight=24 24 36 37 23 24 29 32 34 27 57 49 21 24 37 29 36 21 26 25 23 23 29 26 42 23 25 70 31 155 26
leaf_count=24 24 36 37 23 24 29 32 34 27 57 49 21 24 37 29 36 21 26 25 23 23 29 26 42 23 25 70 31 155 26
internal_value=0 0.981698 -0.68507 2.36329 0.367221 2.03521 1.43982 -0.849338 -1.196 -0.0826886 -0.344053 0.270212 0.603891 0.223914 -0.603494 -0.246969 1.43745 1.43765 1.81945 0.981802 0.682693 -1.17601 -0.738635 -1.58638 -0.00824962 -0.159782 0.0940357 0.74765 -1.42339 -2.08807
internal_weight=0 454 634 131 323 108 79 597 336 225 261 168 132 111 66 89 45 98 74 48 55 78 62 247 183 160 126 56 205 50
internal_count=1088 454 634 131 323 108 79 597 336 225 261 168 132 111 66 89 45 98 74 48 55 78 62 247 183 160 126 56 205 50
cat_boundaries=0 1 2 3
cat_threshold=97 48 15
is_linear=0
shrinkage=0.05


Tree=17
num_leaves=31
num_cat=3
split_feature=0 1 2 7 10 1 2 2 2 10 3 10 2 6 6 3 2 5 5 3 4 7 5 3 3 2 3 4 2 6
split_gain=270470 135515 86971.5 59001.8 57278.8 34779.8 42372.5 30009 27273.6 26922.7 22583.6 18914.1 18443.3 36740.6 32397.5 17557 15214.5 13475.4 13402.1 11562.2 11465.7 11072.5 10552.7 13790 15545.7 11649.7 10695.9 10547 12627.8 9514.09
threshold=0 1 147.50000000000003 3.5000000000000004 246.50000000000003 2 122.50000000000001 112.50000000000001 72.500000000000014 246.50000000000003 8.5000000000000018 246.50000000000003 107.50000000000001 1.0000000180025095e-35 12.500000000000002 14.500000000000002 117.50000000000001 27.500000000000004 22.500000000000004 18.500000000000004 18.500000000000004 1.0000000180025095e-35 47.500000000000007 7.5000000000000009 14.500000000000002 72.500000000000014 11.500000000000002 9.5000000000000018 97.500000000000014 37.500000000000007
decision_type=1 1 2 2 2 1 2 2 2 2 2 2 2 2 2 2 2 2 2 2 2 2 2 2 2 2 2 2 2 2
left_child=1 3 5 10 7 6 19 12 -6 22 -1 -8 13 -3 -15 -16 -9 -5 -11 27 -10 -12 23 -7 26 -26 -25 28 -2 -27
right_child=2 4 -4 17 8 9 11 16 20 18 21 -13 -14 14 15 -17 -18 -19 -20 -21 -22 -23 -24 24 25 29 -28 -29 -30 -31
leaf_value=0.38837420802849992 -1.156620196501414 -1.0019839213540158 1.6912583537601138 3.0083093527555467 0.65268565749420837 -1.0453817290418288 0.39455870880800137 2.8929882121086123 -0.63720750638416845 -1.6214174176965441 2.6988278203540381 -1.0790449145593142 -0.6759916881035114 2.8675832791761922 1.2727806747652766 -0.39349042582511906 1.2355627605650161 4.6852904835472939 -0.26526957585893829 -2.2628410288265774 -1.925007137298584 1.2541532244001117 0.9935960037876731 -0.059209465503692632 -1.3601831181482835 0.82746124948774069 1.330813947031575 -1.1485273428886167 -2.7470963851763655 -0.59153991468526701
leaf_weight=26 24 24 37 25 34 34 51 20 56 49 36 38 29 22 43 25 45 23 29 42 25 21 23 25 22 21 31 155 26 27
leaf_count=26 24 24 37 25 34 34 51 20 56 49 36 38 29 22 43 25 45 23 29 42 25 21 23 25 22 21 31 155 26 27
internal_value=0 0.932613 -0.650816 2.24512 0.34886 -0.806871 -1.1362 0.854749 -0.535804 -0.32685 1.60955 -0.23462 0.449845 0.736241 1.19977 0.660181 1.74554 3.81186 -1.11721 -1.50706 -1.03468 2.16658 -0.00783713 -0.151793 0.0893339 -0.407413 0.710268 -1.35222 -1.98367 0.0292731
internal_weight=0 454 634 131 323 597 336 208 115 261 83 89 143 114 90 68 65 48 78 247 81 57 183 160 126 70 56 205 50 48
internal_count=1088 454 634 131 323 597 336 208 115 261 83 89 143 114 90 68 65 48 78 247 81 57 183 160 126 70 56 205 50 48
cat_boundaries=0 1 2 3
cat_threshold=97 48 15
is_linear=0
shrinkage=0.05


Tree=18
num_leaves=31
num_cat=3
split_feature=0 1 1 2 3 11 2 3 2 2 11 5 6 11 7 3 3 3 2 4 6 7 6 2 3 3 3 2 5 6
split_gain=246801 152335 91813.3 93496.9 75924.8 73464 67724.4 59258.8 50350.1 46970.5 39476.6 36876.4 40768.5 27063.6 22281.6 17785.5 42072.4 14083.3 13413.5 13403.3 12581 12129.1 9277.17 9132.48 8884.03 13213.7 7480.39 7143.05 7085.27 14282.8
threshold=0 1 2 117.50000000000001 7.5000000000000009 2.5000000000000004 132.50000000000003 14.500000000000002 122.50000000000001 67.500000000000014 2.5000000000000004 42.500000000000007 37.500000000000007 2.5000000000000004 3.5000000000000004 18.500000000000004 15.500000000000002 15.500000000000002 107.50000000000001 12.500000000000002 1.0000000180025095e-35 3.5000000000000004 37.500000000000007 87.500000000000014 14.500000000000002 6.5000000000000009 13.500000000000002 107.50000000000001 1.0000000180025095e-35 32.500000000000007
decision_type=1 1 1 2 2 2 2 2 2 2 2 2 2 2 2 2 2 2 2 2 2 2 2 2 2 2 2 2 2 2
left_child=1 7 3 9 -3 -5 21 11 14 22 17 12 -1 28 20 16 23 19 -9 -10 -4 -6 -2 -16 25 -22 -12 -25 -11 -30
right_child=2 4 8 5 6 -7 -8 18 10 13 26 -13 -14 -15 15 -17 -18 -19 -20 -21 24 -23 -24 27 -26 -27 -28 -29 29 -31
leaf_value=1.1371070092916489 1.7951371469497681 0.4257575141756158 -2.1713529257547286 3.8450600194931028 1.9494472210730116 -0.067101801037788386 5.3057834672927857 -0.12751097767441363 0.53344215442394394 -0.89826866476624101 -0.53950359282955052 2.4130204054926123 -1.6276873719692231 -1.8147285316441513 -1.6625882453918459 -1.809689137339592 1.4449949408953007 -0.18702730161172373 -1.5314283676769422 2.1920838111922856 -1.9325394914068026 3.1206630522864209 0.46998248504740858 0.049499833583831788 -1.6108677858947429 -0.73501603869455201 -1.7450330344113436 -1.0903094702296787 -0.60824905849165389 0.86894242803255717
leaf_weight=40 25 38 42 30 60 20 25 27 29 27 31 28 20 37 25 24 26 27 46 21 29 35 28 28 93 112 22 27 36 30
leaf_count=40 25 38 42 30 60 20 25 27 29 27 31 28 20 37 25 24 26 27 46 21 29 35 28 28 93 112 22 27 36 30
internal_value=0 1.15994 -0.473291 0.349057 2.23222 2.2802 2.99029 0.0386351 -0.830612 -0.159503 0.0102962 0.914717 0.215509 -0.670976 -1.12033 -0.580613 -0.302332 0.733167 -1.01217 1.23007 -1.37454 2.38095 1.09506 -0.870213 -1.23152 -0.981315 -1.03991 -0.510043 -0.215935 0.0632016
internal_weight=0 319 769 233 158 50 120 161 536 183 130 88 60 130 406 130 106 77 73 50 276 95 53 80 234 141 53 55 93 66
internal_count=1088 319 769 233 158 50 120 161 536 183 130 88 60 130 406 130 106 77 73 50 276 95 53 80 234 141 53 55 93 66
cat_boundaries=0 1 2 3
cat_threshold=65 71 80
is_linear=0
shrinkage=0.05


Tree=19
num_leaves=31
num_cat=4
split_feature=0 1 1 2 3 11 2 3 2 2 11 5 6 11 1 2 7 5 6 5 3 2 4 7 5 3 6 7 3 3
split_gain=222738 137482 82861.5 84381 68522.1 66301.3 61121.3 53481.1 45441 42390.9 35627.6 33281 36793.5 24424.9 22827.6 47114.7 23431.4 46414.4 17623.8 12896.9 12710.1 12105.7 12096.5 10946.5 10337.5 9426.84 8372.64 6972.55 12038.7 6751.05
threshold=0 1 2 117.50000000000001 7.5000000000000009 2.5000000000000004 132.50000000000003 14.500000000000002 122.50000000000001 67.500000000000014 2.5000000000000004 42.500000000000007 37.500000000000007 2.5000000000000004 3 87.500000000000014 3.5000000000000004 22.500000000000004 37.500000000000007 22.500000000000004 15.500000000000002 107.50000000000001 12.500000000000002 3.5000000000000004 32.500000000000007 14.500000000000002 37.500000000000007 3.5000000000000004 11.500000000000002 13.500000000000002
decision_type=1 1 1 2 2 2 2 2 2 2 2 2 2 2 1 2 2 2 2 2 2 2 2 2 2 2 2 2 2 2
left_child=1 7 3 9 -3 -5 23 11 14 26 20 12 -1 27 15 19 -17 -18 -16 25 22 -9 -10 -6 -20 -4 -2 -11 -29 -12
right_child=2 4 8 5 6 -7 -8 21 10 13 29 -13 -14 -15 18 16 17 -19 24 -21 -22 -23 -24 -25 -26 -27 -28 28 -30 -31
leaf_value=1.0802516321837903 1.7053802967071534 0.40446963106331069 -0.3607216542417353 3.652807004451752 1.8519748452305795 -0.063746755123138432 5.0404942288398749 -0.12113541077684474 0.50677007477858982 -0.63344434013273176 -0.51252840026732416 2.2923694597823281 -1.5463029932975769 -1.7239920954446537 -1.850636748805204 -0.54474408885707026 2.648221395015717 -0.55563753774532909 -1.5531956424713136 -2.4408609261612098 -0.17767594346293697 -1.4548569404560587 2.0824796479372751 2.9646298774651121 -0.18665864044620145 -1.7936189333597821 0.44648335267390521 -0.65007622185207559 0.97382536029815681 -1.6577813755382191
leaf_weight=40 25 38 22 30 60 20 25 27 29 47 31 28 20 37 136 92 20 26 25 30 27 46 21 35 31 24 28 21 25 22
leaf_count=40 25 38 22 30 60 20 25 27 29 47 31 28 20 37 136 92 20 26 25 30 27 46 21 35 31 24 28 21 25 22
internal_value=0 1.10194 -0.449626 0.331604 2.12061 2.16619 2.84077 0.0367034 -0.789081 -0.151527 0.00978141 0.868981 0.204733 -0.637427 -1.06431 -0.606282 -0.0840479 0.837345 -1.46685 -1.63432 0.696508 -0.961563 1.16857 2.2619 -0.79672 -1.10832 1.0403 -0.205138 0.232479 -0.987916
internal_weight=0 319 769 233 158 50 120 161 536 183 130 88 60 130 406 214 138 46 192 76 77 73 50 95 56 46 53 93 46 53
internal_count=1088 319 769 233 158 50 120 161 536 183 130 88 60 130 406 214 138 46 192 76 77 73 50 95 56 46 53 93 46 53
cat_boundaries=0 1 2 3 4
cat_threshold=65 71 80 38
is_linear=0
shrinkage=0.05


end of trees

feature_importances:
duration=167
hour_start_time=98
dayofweek=70
hour_end_time=63
minutes_end_time=63
minutes_start_time=56
dayofyear=29
destination=28
source=20
dayofmonth=6

parameters:
[boosting: gbdt]
[objective: regression]
[metric: l2,l1]
[tree_learner: serial]
[device_type: cpu]
[data_sample_strategy: bagging]
[data: ]
[valid: ]
[num_iterations: 20]
[learning_rate: 0.05]
[num_leaves: 31]
[num_threads: 0]
[seed: 0]
[deterministic: 0]
[force_col_wise: 0]
[force_row_wise: 0]
[histogram_pool_size: -1]
[max_depth: -1]
[min_data_in_leaf: 20]
[min_sum_hessian_in_leaf: 0.001]
[bagging_fraction: 0.8]
[pos_bagging_fraction: 1]
[neg_bagging_fraction: 1]
[bagging_freq: 5]
[bagging_seed: 3]
[feature_fraction: 0.9]
[feature_fraction_bynode: 1]
[feature_fraction_seed: 2]
[extra_trees: 0]
[extra_seed: 6]
[early_stopping_round: 0]
[first_metric_only: 0]
[max_delta_step: 0]
[lambda_l1: 0]
[lambda_l2: 0]
[linear_lambda: 0]
[min_gain_to_split: 0]
[drop_rate: 0.1]
[max_drop: 50]
[skip_drop: 0.5]
[xgboost_dart_mode: 0]
[uniform_drop: 0]
[drop_seed: 4]
[top_rate: 0.2]
[other_rate: 0.1]
[min_data_per_group: 100]
[max_cat_threshold: 32]
[cat_l2: 10]
[cat_smooth: 10]
[max_cat_to_onehot: 4]
[top_k: 20]
[monotone_constraints: ]
[monotone_constraints_method: basic]
[monotone_penalty: 0]
[feature_contri: ]
[forcedsplits_filename: ]
[refit_decay_rate: 0.9]
[cegb_tradeoff: 1]
[cegb_penalty_split: 0]
[cegb_penalty_feature_lazy: ]
[cegb_penalty_feature_coupled: ]
[path_smooth: 0]
[interaction_constraints: ]
[verbosity: 0]
[saved_feature_importance_type: 0]
[use_quantized_grad: 0]
[num_grad_quant_bins: 4]
[quant_train_renew_leaf: 0]
[stochastic_rounding: 1]
[linear_tree: 0]
[max_bin: 255]
[max_bin_by_feature: ]
[min_data_in_bin: 3]
[bin_construct_sample_cnt: 200000]
[data_random_seed: 1]
[is_enable_sparse: 1]
[enable_bundle: 1]
[use_missing: 1]
[zero_as_missing: 0]
[feature_pre_filter: 1]
[pre_partition: 0]
[two_round: 0]
[header: 0]
[label_column: ]
[weight_column: ]
[group_column: ]
[ignore_column: ]
[categorical_feature: 0,1]
[forcedbins_filename: ]
[precise_float_parser: 0]
[parser_config_file: ]
[objective_seed: 5]
[num_class: 1]
[is_unbalance: 0]
[scale_pos_weight: 1]
[sigmoid: 1]
[boost_from_average: 1]
[reg_sqrt: 0]
[alpha: 0.9]
[fair_c: 1]
[poisson_max_delta_step: 0.7]
[tweedie_variance_power: 1.5]
[lambdarank_truncation_level: 30]
[lambdarank_norm: 1]
[label_gain: ]
[lambdarank_position_bias_regularization: 0]
[eval_at: ]
[multi_error_top_k: 1]
[auc_mu_weights: ]
[num_machines: 1]
[local_listen_port: 12400]
[time_out: 120]
[machine_list_filename: ]
[machines: ]
[gpu_platform_id: -1]
[gpu_device_id: -1]
[gpu_use_dp: 0]
[num_gpu: 1]

end of parameters

pandas_categorical:[["BCN", "CDG", "FCO", "FRA", "LHR", "MUC", "ZRH"], ["BCN", "CDG", "FCO", "FRA", "LHR", "MUC", "ZRH"]]
